%YAML:1.0
my_svm: !!opencv-ml-svm
   svm_type: C_SVC
   kernel: { type:RBF, gamma:5.0625000000000009e-001 }
   C: 3.1250000000000000e+002
   term_criteria: { epsilon:2.2204460492503131e-016, iterations:100 }
   var_all: 10
   var_count: 10
   class_count: 3
   class_labels: !!opencv-matrix
      rows: 1
      cols: 3
      dt: i
      data: [ 1, 2, 3 ]
   sv_total: 18
   support_vectors:
      - [ 1.00000001e-001, 2.00000003e-001, 0., 1.00000001e-001,
          2.00000003e-001, 1.00000001e-001, 3.00000012e-001, 0., 0., 0. ]
      - [ 0., 3.75000000e-001, 0., 0., 1.25000000e-001, 1.25000000e-001,
          1.25000000e-001, 0., 0., 2.50000000e-001 ]
      - [ 0., 2.50000000e-001, 0., 0., 1.25000000e-001, 1.25000000e-001,
          2.50000000e-001, 0., 0., 2.50000000e-001 ]
      - [ 0., 2.72727281e-001, 1.81818187e-001, 9.09090936e-002,
          9.09090936e-002, 2.72727281e-001, 9.09090936e-002, 0., 0., 0. ]
      - [ 0., 1.42857149e-001, 1.42857149e-001, 0., 1.42857149e-001,
          4.28571463e-001, 1.42857149e-001, 0., 0., 0. ]
      - [ 0., 2.50000000e-001, 1.25000000e-001, 1.25000000e-001, 0.,
          2.50000000e-001, 1.25000000e-001, 0., 0., 1.25000000e-001 ]
      - [ 1.11111112e-001, 2.22222224e-001, 0., 0., 2.22222224e-001,
          1.11111112e-001, 0., 1.11111112e-001, 0., 2.22222224e-001 ]
      - [ 9.09090936e-002, 9.09090936e-002, 0., 0., 9.09090936e-002,
          3.63636374e-001, 9.09090936e-002, 9.09090936e-002,
          9.09090936e-002, 9.09090936e-002 ]
      - [ 0., 2.85714298e-001, 1.42857149e-001, 0., 2.85714298e-001,
          1.42857149e-001, 1.42857149e-001, 0., 0., 0. ]
      - [ 0., 1.42857149e-001, 0., 2.85714298e-001, 0., 2.85714298e-001,
          0., 0., 1.42857149e-001, 1.42857149e-001 ]
      - [ 0., 3.33333343e-001, 0., 1.11111112e-001, 0., 0.,
          2.22222224e-001, 0., 0., 3.33333343e-001 ]
      - [ 0., 0., 0., 1.66666672e-001, 1.66666672e-001, 0., 0.,
          1.66666672e-001, 3.33333343e-001, 1.66666672e-001 ]
      - [ 0., 2.50000000e-001, 0., 1.25000000e-001, 0., 0.,
          2.50000000e-001, 1.25000000e-001, 0., 2.50000000e-001 ]
      - [ 1.42857149e-001, 1.42857149e-001, 0., 1.42857149e-001, 0.,
          2.85714298e-001, 2.85714298e-001, 0., 0., 0. ]
      - [ 0., 4.28571463e-001, 1.42857149e-001, 1.42857149e-001, 0.,
          2.85714298e-001, 0., 0., 0., 0. ]
      - [ 0., 0., 2.85714298e-001, 1.42857149e-001, 0., 0.,
          2.85714298e-001, 0., 0., 2.85714298e-001 ]
      - [ 1.00000001e-001, 2.00000003e-001, 0., 2.00000003e-001,
          2.00000003e-001, 0., 1.00000001e-001, 1.00000001e-001, 0.,
          1.00000001e-001 ]
      - [ 0., 4.44444448e-001, 0., 2.22222224e-001, 1.11111112e-001, 0.,
          0., 0., 0., 2.22222224e-001 ]
   decision_functions:
      -
         sv_count: 9
         rho: 7.9918306036324607e+000
         alpha: [ 1.1781472843070547e+002, 8.0883990321730678e+001,
             1.6628739592851173e+002, 1.6578628840839770e+002,
             7.8031165757431026e+001, 1.4148511816290164e+002,
             -2.2574221105703015e+002, -3.1250000000000000e+002,
             -2.1204647595264808e+002 ]
         index: [ 0, 1, 2, 3, 4, 6, 7, 8, 10 ]
      -
         sv_count: 8
         rho: 9.6670747105789019e+000
         alpha: [ 8.1999467399196703e+001, 2.2838687034153176e+002,
             -3.0061811798728591e+001, -9.8315682071560445e+001,
             -1.0986612013343796e+002, -4.5595119130064788e+001,
             -2.4716587308673354e+001, -1.8310172982633957e+000 ]
         index: [ 0, 5, 12, 13, 14, 15, 16, 17 ]
      -
         sv_count: 9
         rho: 5.9745035610751307e-001
         alpha: [ 4.2604079042862480e+001, 4.4135254009266518e+001,
             1.3851681512295858e+002, 5.6234139310485141e+000,
             -8.2961544645425050e+001, -2.9685288798922933e+001,
             -1.3895541097481383e+001, -2.6831709214732115e+001,
             -7.7505478349574616e+001 ]
         index: [ 8, 9, 10, 11, 12, 13, 14, 15, 17 ]
